<?xml version="1.0"?>
<opencv_storage>
<opencv_ml_svm>
  <format>3</format>
  <svmType>C_SVC</svmType>
  <kernel>
    <type>RBF</type>
    <gamma>1.0000000000000001e-05</gamma></kernel>
  <C>0.5</C>
  <term_criteria><epsilon>1.1920928955078125e-07</epsilon>
    <iterations>1000</iterations></term_criteria>
  <var_count>2</var_count>
  <class_count>2</class_count>
  <class_labels type_id="opencv-matrix">
    <rows>2</rows>
    <cols>1</cols>
    <dt>i</dt>
    <data>
      0 1</data></class_labels>
  <sv_total>37</sv_total>
  <support_vectors>
    <_>
      152. 6.</_>
    <_>
      135. 79.</_>
    <_>
      105. 72.</_>
    <_>
      40. 129.</_>
    <_>
      11. 102.</_>
    <_>
      1. 128.</_>
    <_>
      109. 51.</_>
    <_>
      61. 108.</_>
    <_>
      139. 121.</_>
    <_>
      129. 150.</_>
    <_>
      152. 39.</_>
    <_>
      125. 38.</_>
    <_>
      59. 105.</_>
    <_>
      129. 24.</_>
    <_>
      138. 95.</_>
    <_>
      133. 131.</_>
    <_>
      75. 139.</_>
    <_>
      141. 48.</_>
    <_>
      123. 15.</_>
    <_>
      221. 129.</_>
    <_>
      212. 101.</_>
    <_>
      115. 151.</_>
    <_>
      149. 207.</_>
    <_>
      159. 108.</_>
    <_>
      168. 115.</_>
    <_>
      110. 133.</_>
    <_>
      141. 192.</_>
    <_>
      163. 160.</_>
    <_>
      153. 159.</_>
    <_>
      126. 174.</_>
    <_>
      112. 167.</_>
    <_>
      138. 128.</_>
    <_>
      203. 155.</_>
    <_>
      118. 158.</_>
    <_>
      157. 167.</_>
    <_>
      160. 190.</_>
    <_>
      240. 122.</_></support_vectors>
  <decision_functions>
    <_>
      <sv_count>37</sv_count>
      <rho>-0.084629290360961909</rho>
      <alpha>
        0.5 0.5 0.5 0.5 0.14454642517201954 0.5 0.5 0.5 0.5 0.5 0.5 0.5
        0.5 0.5 0.5 0.5 0.5 0.5 0.017692008867185124 -0.5 -0.5 -0.5
        -0.16223843403920463 -0.5 -0.5 -0.5 -0.5 -0.5 -0.5 -0.5 -0.5
        -0.5 -0.5 -0.5 -0.5 -0.5 -0.5</alpha>
      <index>
        0 1 2 3 4 5 6 7 8 9 10 11 12 13 14 15 16 17 18 19 20 21 22 23 24
        25 26 27 28 29 30 31 32 33 34 35 36</index></_></decision_functions></opencv_ml_svm>
</opencv_storage>
